<?xml version="1.0"?>
<opencv_storage>
<stage3>
  <maxWeakCount>10</maxWeakCount>
  <stageThreshold>-4.5409616827964783e-001</stageThreshold>
  <weakClassifiers>
    <_>
      <internalNodes>
        0 -1 11517 2.5446179509162903e-001</internalNodes>
      <leafValues>
        -1.1538461595773697e-001 8.1944441795349121e-001</leafValues></_>
    <_>
      <internalNodes>
        0 -1 38140 1.9899597391486168e-003</internalNodes>
      <leafValues>
        -1.3235469162464142e-001 7.6179403066635132e-001</leafValues></_>
    <_>
      <internalNodes>
        0 -1 27369 8.5667386651039124e-002</internalNodes>
      <leafValues>
        -2.2898189723491669e-001 6.4504122734069824e-001</leafValues></_>
    <_>
      <internalNodes>
        0 -1 27830 -9.6318413852714002e-005</internalNodes>
      <leafValues>
        -3.9483866095542908e-001 3.6940762400627136e-001</leafValues></_>
    <_>
      <internalNodes>
        0 -1 74855 -3.6043738946318626e-003</internalNodes>
      <leafValues>
        5.6435018777847290e-001 -2.5253900885581970e-001</leafValues></_>
    <_>
      <internalNodes>
        0 -1 17821 -2.2124655079096556e-003</internalNodes>
      <leafValues>
        7.6201087236404419e-001 -2.1820382773876190e-001</leafValues></_>
    <_>
      <internalNodes>
        0 -1 65612 2.5551495491527021e-004</internalNodes>
      <leafValues>
        3.9468392729759216e-001 -3.6834871768951416e-001</leafValues></_>
    <_>
      <internalNodes>
        0 -1 29830 5.3592873737215996e-003</internalNodes>
      <leafValues>
        -2.4675486981868744e-001 5.4019641876220703e-001</leafValues></_>
    <_>
      <internalNodes>
        0 -1 26773 -1.0546871926635504e-003</internalNodes>
      <leafValues>
        6.3204497098922729e-001 -2.6319292187690735e-001</leafValues></_>
    <_>
      <internalNodes>
        0 -1 201 8.9969509281218052e-004</internalNodes>
      <leafValues>
        2.9338279366493225e-001 -5.4772716760635376e-001</leafValues></_></weakClassifiers></stage3>
</opencv_storage>
