<?xml version="1.0"?>
<opencv_storage>
<stage6>
  <maxWeakCount>9</maxWeakCount>
  <stageThreshold>-4.8793646693229675e-001</stageThreshold>
  <weakClassifiers>
    <_>
      <internalNodes>
        0 -1 76639 -1.0113305324921384e-004</internalNodes>
      <leafValues>
        -3.1868132948875427e-001 6.1722487211227417e-001</leafValues></_>
    <_>
      <internalNodes>
        0 -1 76236 4.6154239680618048e-004</internalNodes>
      <leafValues>
        4.5538914203643799e-001 -5.4420477151870728e-001</leafValues></_>
    <_>
      <internalNodes>
        0 -1 34183 6.0559734702110291e-003</internalNodes>
      <leafValues>
        -2.6472771167755127e-001 6.4835673570632935e-001</leafValues></_>
    <_>
      <internalNodes>
        0 -1 39848 -6.8793836981058121e-003</internalNodes>
      <leafValues>
        6.2523955106735229e-001 -3.1657174229621887e-001</leafValues></_>
    <_>
      <internalNodes>
        0 -1 49182 -4.5014712959527969e-003</internalNodes>
      <leafValues>
        4.5314946770668030e-001 -3.4700483083724976e-001</leafValues></_>
    <_>
      <internalNodes>
        0 -1 49959 2.0923400297760963e-003</internalNodes>
      <leafValues>
        -3.1695482134819031e-001 6.1930471658706665e-001</leafValues></_>
    <_>
      <internalNodes>
        0 -1 11592 -1.8538039876148105e-004</internalNodes>
      <leafValues>
        -4.8943570256233215e-001 3.4223216772079468e-001</leafValues></_>
    <_>
      <internalNodes>
        0 -1 62383 1.6320861876010895e-002</internalNodes>
      <leafValues>
        -2.4788908660411835e-001 7.5892186164855957e-001</leafValues></_>
    <_>
      <internalNodes>
        0 -1 7548 7.7520351624116302e-004</internalNodes>
      <leafValues>
        -2.1019484102725983e-001 7.0307224988937378e-001</leafValues></_></weakClassifiers></stage6>
</opencv_storage>
