<?xml version="1.0"?>
<opencv_storage>
<stage3>
  <maxWeakCount>9</maxWeakCount>
  <stageThreshold>-4.3472939729690552e-001</stageThreshold>
  <weakClassifiers>
    <_>
      <internalNodes>
        0 -1 13995 5.9660915285348892e-002</internalNodes>
      <leafValues>
        -5.3254436701536179e-002 8.3206105232238770e-001</leafValues></_>
    <_>
      <internalNodes>
        0 -1 65736 1.0505507816560566e-004</internalNodes>
      <leafValues>
        4.7484436631202698e-001 -4.1766655445098877e-001</leafValues></_>
    <_>
      <internalNodes>
        0 -1 74278 -4.5339111238718033e-003</internalNodes>
      <leafValues>
        6.6765254735946655e-001 -2.6243919134140015e-001</leafValues></_>
    <_>
      <internalNodes>
        0 -1 24094 2.8980774804949760e-002</internalNodes>
      <leafValues>
        -2.6799961924552917e-001 6.8840968608856201e-001</leafValues></_>
    <_>
      <internalNodes>
        0 -1 22761 5.4921151604503393e-004</internalNodes>
      <leafValues>
        3.8590276241302490e-001 -4.6265816688537598e-001</leafValues></_>
    <_>
      <internalNodes>
        0 -1 61100 2.2840544581413269e-002</internalNodes>
      <leafValues>
        -2.9760229587554932e-001 6.1545163393020630e-001</leafValues></_>
    <_>
      <internalNodes>
        0 -1 40747 -1.6605506243649870e-004</internalNodes>
      <leafValues>
        -4.3422988057136536e-001 3.8008299469947815e-001</leafValues></_>
    <_>
      <internalNodes>
        0 -1 58270 -4.5217443257570267e-003</internalNodes>
      <leafValues>
        6.0980826616287231e-001 -2.7895545959472656e-001</leafValues></_>
    <_>
      <internalNodes>
        0 -1 58933 3.2598527614027262e-003</internalNodes>
      <leafValues>
        3.4160190820693970e-001 -6.1030238866806030e-001</leafValues></_></weakClassifiers></stage3>
</opencv_storage>
