<?xml version="1.0"?>
<opencv_storage>
<stage2>
  <maxWeakCount>9</maxWeakCount>
  <stageThreshold>-3.3157312870025635e-001</stageThreshold>
  <weakClassifiers>
    <_>
      <internalNodes>
        0 -1 24155 5.4917626082897186e-002</internalNodes>
      <leafValues>
        -1.0526315867900848e-001 7.8378379344940186e-001</leafValues></_>
    <_>
      <internalNodes>
        0 -1 21525 -2.9932381585240364e-004</internalNodes>
      <leafValues>
        -5.0102084875106812e-001 4.3988770246505737e-001</leafValues></_>
    <_>
      <internalNodes>
        0 -1 60961 -7.3804616928100586e-002</internalNodes>
      <leafValues>
        7.2649878263473511e-001 -3.0584961175918579e-001</leafValues></_>
    <_>
      <internalNodes>
        0 -1 61657 -1.2618400796782225e-004</internalNodes>
      <leafValues>
        -5.0222527980804443e-001 3.1725937128067017e-001</leafValues></_>
    <_>
      <internalNodes>
        0 -1 24560 -5.0401487387716770e-003</internalNodes>
      <leafValues>
        6.5718978643417358e-001 -2.4136981368064880e-001</leafValues></_>
    <_>
      <internalNodes>
        0 -1 73351 2.2244409192353487e-003</internalNodes>
      <leafValues>
        2.5615188479423523e-001 -7.7634876966476440e-001</leafValues></_>
    <_>
      <internalNodes>
        0 -1 60404 3.7533128634095192e-003</internalNodes>
      <leafValues>
        -2.1371462941169739e-001 7.6479953527450562e-001</leafValues></_>
    <_>
      <internalNodes>
        0 -1 48983 -7.4788229539990425e-004</internalNodes>
      <leafValues>
        -7.8488093614578247e-001 2.6469114422798157e-001</leafValues></_>
    <_>
      <internalNodes>
        0 -1 20597 6.8161869421601295e-004</internalNodes>
      <leafValues>
        3.5806763172149658e-001 -5.2166956663131714e-001</leafValues></_></weakClassifiers></stage2>
</opencv_storage>
